<?xml version="1.0"?>
<opencv_storage>
<FruitRecog type_id="opencv-ml-ann-mlp">
  <layer_sizes type_id="opencv-matrix">
    <rows>1</rows>
    <cols>3</cols>
    <dt>i</dt>
    <data>
      24 16 6</data></layer_sizes>
  <activation_function>SIGMOID_SYM</activation_function>
  <f_param1>5.9999999999999998e-001</f_param1>
  <f_param2>1.</f_param2>
  <min_val>-9.4999999999999996e-001</min_val>
  <max_val>9.4999999999999996e-001</max_val>
  <min_val1>-9.7999999999999998e-001</min_val1>
  <max_val1>9.7999999999999998e-001</max_val1>
  <training_params>
    <train_method>BACKPROP</train_method>
    <dw_scale>1.0000000000000001e-001</dw_scale>
    <moment_scale>1.0000000000000001e-001</moment_scale>
    <term_criteria><epsilon>9.9999999747524271e-007</epsilon>
      <iterations>1000</iterations></term_criteria></training_params>
  <input_scale>
    8.6710795205459240e-002 -1.4091826259712177e+000
    6.6721257264104744e-002 -1.3612101061092765e+000
    6.8251632371750290e-002 -1.5570348658567665e+000
    5.4208845811281894e-002 -2.3502165239053543e+000
    4.0237678372972846e-002 -2.1701718813559339e+000
    4.9642644359873180e-002 -3.0630238676875501e+000
    3.2123076799758066e-001 -1.7270121114628723e+000
    2.0067335766478336e-001 -2.1801334191458488e+000
    6.7784463103650647e-002 -1.5585515212005128e+000
    9.7833196069392767e-002 -1.9788078559566611e+000
    1.5035914100207681e-001 -5.1808133062544375e+000
    4.9259588339376673e-002 -3.0577134617930866e+000
    1.7416015197954471e+000 -2.0176318868166589e+000
    8.9004477431233973e+000 -6.9616805474197436e+000
    2.9247112442378700e+001 -2.7455995928579522e+001
    8.7264354994969415e-002 -1.5418548246884038e+000
    9.9315562150708843e-005 -1.4002624576105178e+000
    3.6937100524108852e-007 -1.5401132664869641e+000
    6.4025267430398719e+002 -6.3826702315134230e+002
    6.2233152590037719e+001 2.3378098100786033e+000
    1.1099094759622801e+001 -8.9627343916129742e+000
    1.5199212593730929e+001 -1.3404536577817241e+001
    7.0190987164151269e-006 -8.3865262053532164e-001
    7.1603414095941093e-002 -5.0975844701837660e+000</input_scale>
  <output_scale>
    5.2701423122351498e-001 4.9933648033766070e-001
    5.2701423122351498e-001 4.9933648033766070e-001
    5.2701423122351498e-001 4.9933648033766070e-001
    5.2701423122351498e-001 4.9933648033766070e-001
    5.2701423122351498e-001 4.9933648033766070e-001
    5.2701423122351498e-001 4.9933648033766070e-001</output_scale>
  <inv_output_scale>
    1.8974819668121718e+000 -9.4748196681217189e-001
    1.8974819668121718e+000 -9.4748196681217189e-001
    1.8974819668121718e+000 -9.4748196681217189e-001
    1.8974819668121718e+000 -9.4748196681217189e-001
    1.8974819668121718e+000 -9.4748196681217189e-001
    1.8974819668121718e+000 -9.4748196681217189e-001</inv_output_scale>
  <weights>
    <_>
      -3.9904584335527264e+000 7.4279990640098548e-002
      9.9819419680195864e-001 1.4611486451165528e-001
      -1.9474395938385114e+000 -4.9155434129725839e-001
      3.7446886645766053e-001 8.7014583677414470e-001
      6.4119006351564856e-001 -5.7471981480994028e-001
      2.6074920906422372e-001 6.4647775673988850e-001
      1.2144002966232779e+000 1.0330044712961479e+000
      -7.7815660417822252e-001 2.3188546891106575e-002
      -4.0648943235537809e+000 8.1601325153754331e-002
      -7.0000504641112860e-001 2.0795097221832587e-001
      1.1061862874136403e-002 7.8229457784364076e-001
      9.4246907206577435e-001 7.1646839981726884e-002
      2.1786764197654526e-001 -5.3745723975499582e-001
      6.2677690333775138e-001 3.4080325931457572e-001
      3.5502041449080535e-001 1.2935156752921975e+000
      4.5623688537425017e-001 1.5477034931118383e-001
      -2.5812646480397832e+000 1.1025052971973899e-001
      1.2506935521752593e+000 1.8035058956249195e-001
      -1.3733790633333733e+000 -3.2501914585766395e-001
      1.8887250158241059e-001 8.8557063428384386e-001
      5.2353511133672204e-001 -3.3308585402971214e-001
      9.9470725854764575e-002 3.4438864105487493e-001
      1.2040988986506209e+000 2.3152493623651640e-001
      -7.1120445013586664e-001 -1.8635280434566115e-001
      -1.8604572085185818e+000 6.7303452580854317e-001
      1.0262520308710881e+000 7.8078789918531316e-002
      -6.9522257040777080e-001 -2.4844301173437661e-001
      1.9440803126914319e-003 4.4497309056228235e-001
      3.9034284220229087e-001 -2.7829277683825981e-002
      -7.9874225860669923e-001 -4.5202192066136854e-001
      7.2134463177256347e-001 -6.4016289294898465e-001
      -4.6824145927285238e-001 -4.0308074241048381e-001
      -1.7197281100120880e+000 7.6212827688223173e-001
      -7.0735514799369659e-001 1.1043742005916674e-002
      1.5556873736339709e+000 1.3483237958519489e+000
      6.0178027405995815e-001 -5.7519153590994898e-001
      -2.2395654615303104e-001 1.1362882262445768e-001
      -3.4762640635818570e-001 -9.5773288309967808e-001
      -2.4869845640627250e-001 -4.2585817292012806e-001
      1.2185808751522325e+000 -3.3675597377027838e-001
      3.6173622596281568e-001 6.7382302468278432e-001
      2.0935392387209579e+000 -4.4047405438312676e-002
      2.9634287220925076e-002 -8.8143592259761677e-002
      -6.0365732647374959e-001 6.9127477521245639e-001
      1.4805368145246900e-001 3.4802960895493879e-001
      -1.0030194142997080e+000 -1.1834853983562275e+000
      9.1846238675806668e-001 -1.9154171716611601e+000
      -8.2442884827921326e-001 -7.7480452645393660e-001
      1.0815024062859988e+000 -2.6599731128972026e-001
      -2.0199947116595003e+000 3.8020636138334596e-001
      1.3603499241419128e+000 4.4006531821365401e-002
      2.6460121641862702e-002 -1.0122919467545746e-001
      -2.9373977695327619e-001 -2.8846013176770086e-001
      -1.1261961724931022e-001 -6.7181536333277350e-002
      -1.7917424452313491e+000 1.9094365392828536e-001
      1.6910431046457850e+000 1.3494615099131607e-001
      8.0154988456198881e-002 -4.3249288869535651e-001
      -1.2040238880187661e+000 2.0670874615728227e-001
      3.8756306512809480e-001 -4.2092699274175899e-001
      -2.9463756030074023e-001 1.0821953823355940e-001
      -2.0127660584389423e-001 1.1726260957399313e-001
      4.2971849677992108e-001 4.3714815898768689e-001
      -1.5230523896435959e+000 -4.6573834770862765e-001
      1.0251943781358033e+000 3.2791746649229503e-001
      -2.9584762699569733e+000 1.0360552805585237e-001
      7.9025156084558146e-001 1.6797992311158211e-001
      -1.1033357014745460e+000 -2.2352107060533929e-001
      3.2611365445310947e-001 7.9089961121454710e-001
      3.5159295760704884e-001 -3.7011361298263462e-001
      1.3856096843622828e-001 4.5055243614342361e-001
      7.7084051402460496e-001 3.6833269492828413e-001
      -4.7530969344020585e-001 -4.5946767524441448e-002
      4.5700241762373448e+000 -2.9596498349139860e-001
      3.0593040944678712e-001 2.0245728462805587e-001
      4.5419907483074978e-001 -1.8267502092101442e+000
      -1.9364952505909343e+000 8.9914046953936055e-001
      -3.3181429968093722e-002 3.7820903407418055e-001
      -1.2195758618332153e+000 7.3233463368822596e-002
      -1.5094514014145095e+000 -2.1973987091866705e+000
      1.0847672165178586e-001 -1.7998778322983569e-001
      3.7837801571930192e+000 -8.5199703232864810e-001
      -7.2183005987581816e-001 2.4718940549064586e-001
      1.7082468713299854e+000 -1.2357232311204037e-002
      -1.2095435890723776e+000 5.0967129690186541e-001
      -9.6315750355845664e-001 3.2727306692699654e-001
      5.3027906458547414e-001 -5.3845656208016301e-001
      -1.0064633153139464e+000 -1.3154399006159723e+000
      4.6461962713325416e-001 -7.5176849867091777e-002
      -2.9002541512312552e-001 5.6608155122674841e-001
      1.0605100257103361e+000 7.5495134255938560e-004
      4.8620850288436701e-001 6.7028118164115497e-002
      -4.4214627714872096e-001 3.0718691513109886e-001
      4.6513704035481447e-002 4.3380370821646502e-001
      -8.2483382301524788e-001 -9.6983897029118726e-001
      3.1885058571968639e-001 -1.5259359148496332e+000
      -2.5517357821568548e-001 -6.4851637697779740e-001
      -4.7297206688277864e+000 -1.2155630060600721e-001
      -1.1842769546060896e+000 -2.5691492477686201e-001
      -2.3577380141769844e+000 -1.1847002713746675e+000
      1.0230883463809286e+000 -3.9935170891914568e-001
      2.7827464703449717e-001 -1.1445236702905980e-001
      1.1819039295334253e+000 1.5220222910790937e+000
      -9.8092374773306057e-001 2.1168016421439710e+000
      5.4846693082242737e-001 1.0840457734456466e+000
      3.8904589033135739e+000 1.4175182063516631e-001
      3.8712280469358590e-001 6.1814566659959286e-003
      1.7150600162343077e+000 1.1458055420882891e+000
      -4.3107824203101863e-001 -3.2660524435287225e-001
      -3.1918053139317587e-001 3.2421933253735047e-001
      -5.8346800496718421e-001 -1.2433878168195207e+000
      4.1181085213906138e-001 -1.0941046678367379e+000
      -4.4973282661519592e-002 -6.3222549159761743e-001
      4.3769838430461663e+000 -2.7282154696979320e-003
      2.9043749359081312e+000 1.3679215666593941e-002
      1.0340166578333243e-001 -1.4980149268148416e-001
      -1.9668433384216912e+000 1.2332032079151372e+000
      -3.4350509409663978e-002 4.3127127629894690e-001
      -1.7024902410283345e+000 -9.6230427821719644e-001
      1.7020340805322332e+000 -2.8159195286690228e+000
      -2.1406376031094418e+000 -9.0984805427635806e-001
      7.7310636294401366e-002 4.7596761396473197e-001
      6.2076748468619813e-001 -1.2382499729834309e-001
      1.4792127314907677e+000 2.9173512063601770e-001
      -6.0262701147194297e-001 1.4472435514018780e-001
      1.4504404437072715e-001 5.5386234466974138e-001
      -2.7030158573938617e-001 -1.3859795508921191e+000
      -1.2011026770973651e-001 -1.4427895923244614e+000
      3.9757285371444345e-001 -8.0252932581468550e-001
      -2.8309500888940167e+000 2.2645568554478671e-001
      3.5154389024108147e-002 3.6712113543360292e-001
      7.5831897338858101e-001 1.6942053582718959e+000
      8.4311268918239546e-001 2.2662795673938252e-001
      3.0182830264689681e-002 -6.1290116276571294e-001
      2.1204692473559025e-001 -7.1929862410725887e-001
      1.1619707329925950e+000 4.1210176798475612e-001
      2.2108400506240466e-001 -6.2496654698116938e-001
      -9.8677758116118197e-001 6.2221720436933325e-001
      -7.6900871158897199e-001 2.7140037975831588e-001
      2.8660645890414829e+000 2.7014594277990391e+000
      6.4694672139164078e-001 -4.5532449053309765e-001
      -3.7757257075336076e-001 -2.6082805202002585e-001
      -4.0575655252314979e-001 -2.0008414820943665e+000
      7.4635162134021471e-001 -7.0201843039815615e-001
      1.0497452151641864e+000 -9.0241537105725489e-001
      -3.5818135700509790e-001 9.8949141099885851e-001
      2.3154256013339397e-001 1.8539274236066980e-001
      2.2754619192529321e-001 6.5588676097313603e-001
      3.1129562853144088e-001 -1.9837136788357287e-001
      7.9700566922511845e-002 -1.4902892918735478e-001
      -7.2448106176920590e-001 -5.3192655577546100e-001
      1.6846408586030645e-001 -4.5531210218021395e-001
      3.2278273550947584e-001 -3.2194366177842570e-001
      6.7113440202894425e-001 1.5466093892746937e+000
      1.0695871253599467e+000 -1.5030270320563191e-001
      1.5136769611286502e+000 7.8528589011076888e-001
      1.4626261541784447e-001 -6.9783497910434866e-001
      2.5547821855933361e-001 6.4515288490817957e-001
      -1.8228321358024950e+000 -1.7430656471000476e+000
      -1.1507916121255284e-001 -2.4773133607981621e+000
      8.1246098847957093e-001 -9.8671422764065442e-001
      -3.8873721071539552e-001 2.5918107089316400e-001
      -4.2862588255899470e-001 -3.7700536520310068e-001
      -1.2799335569570308e-002 -1.3571426246959259e+000
      -9.1837283219429577e-001 -5.1320803849437913e-001
      -5.0667614158518792e-001 1.0389645097228357e+000
      -4.8008968449919170e-001 -5.1375442004946398e-002
      -2.1200833924703333e+000 -1.0245312540079765e+000
      3.8874834623478310e-001 5.5005295155090839e-001
      4.1725248613034012e+000 2.5741080334192695e-001
      2.2354126066503677e-001 -1.1508613145098187e-001
      2.0596938665749382e+000 1.2956526881059371e+000
      -5.1361659010201210e-001 -4.3357992269410661e-001
      -5.1197806116255806e-001 3.2983490330844550e-001
      -7.0298286634152285e-001 -1.3898245135127663e+000
      3.2773299929506300e-001 -1.2802277362084848e+000
      4.6934663289706753e-002 -6.9985350973034333e-001
      -6.9070370700669974e+000 -6.7130673396614970e-001
      4.3703255651881412e-001 -8.5959522997805182e-002
      -8.7199540342290360e-001 2.1865466332989718e+000
      5.7059395463314544e-001 -2.7532753187642733e-001
      1.3963568670278210e+000 -5.9954419183811147e-001
      -1.0483849199914312e+000 1.3212249336369910e+000
      2.3429269831182480e+000 -1.9000539120579144e-001
      1.3290574471368175e+000 6.7137435947428559e-001
      2.8000833481401219e+000 6.6405201267104552e-001
      1.4044227002535923e+000 -8.1538160171538865e-001
      -1.6752298198482871e+000 -2.0182314369683046e-001
      3.5083831521815267e-002 -8.1995887852378824e-001
      -1.0330071352945647e+000 6.3878269106484620e-001
      1.2318060596123697e+000 -1.9245506804860306e+000
      1.3784057462483279e+000 1.7025463794859363e+000
      -2.6130141656079418e+000 -1.3915053280167440e+000
      6.7628250270731911e+000 3.1512483678224035e+000
      2.1470306494891385e-003 3.4114725097004115e+000
      3.4916692235130355e+000 1.3890746234518593e-002
      -2.7238298429735979e+000 2.7764340996652126e+000
      -5.5676488034320415e-001 -2.0870498966336681e+000
      6.7407111403334452e-001 -9.6942915052979839e-001
      -1.1891296453051805e+000 -1.1041171281779822e+000
      -9.8594808479088825e-001 -1.0902455947616321e+000</_>
    <_>
      -5.8025947101735298e-001 -6.9550287800513377e-001
      3.2666742324506931e-001 -5.1749110494188177e-001
      -1.7173124798419575e+000 -8.0217522464363578e-001
      -2.4371479499893498e+000 -2.3435609703405018e+000
      -2.6229030550637238e+000 -9.7537714600702008e-001
      -3.3072986612586952e-001 3.2832708768115064e+000
      1.6981542768229476e+000 4.1551639219266218e-002
      -8.2028534233180928e-001 -3.5548619710417597e+000
      -5.7649256435168239e-001 2.6177683231288293e+000
      -2.4486093045886022e+000 -1.4262689597508653e+000
      -1.7498221697481307e+000 -1.8448702642599988e+000
      -1.6204619569280365e+000 -2.1807577038319885e+000
      -4.7024337633072033e+000 -4.1644723772043796e-001
      -6.4696527169765894e-001 2.8740452619396311e+000
      -3.1992786815311094e+000 7.8405490586149595e-001
      1.5517303594182466e+000 1.5129539289010689e+000
      -1.7561663707608253e+000 3.1289413238864907e+000
      -2.5450578679540090e+000 -1.8218512944436527e+000
      2.7437118331852259e+000 -4.3438627639684169e-001
      -8.3075035727081215e-001 1.9928946583587204e+000
      1.8062865368393559e+000 -2.7153319753434277e+000
      -1.9301095389515486e+000 -1.9065514740966261e+000
      -2.5427608423364495e-001 -3.7747113588367274e+000
      -1.9791652097427725e+000 -1.0551795456838768e+000
      -3.7550535376690436e-001 9.8054412297354743e-001
      -2.0324600729233642e+000 -1.3096224931376881e+000
      1.8872939919987020e+000 -7.4679620161632698e-001
      8.7803954246294835e-001 2.2440251714460702e-001
      1.9148277797900437e+000 1.0790441303527445e+000
      5.0853774811173225e-001 2.9733214587309691e+000
      1.4291917975838411e+000 -1.7035283307399964e+000
      8.9497773968593974e-001 6.9694223057805327e-001
      1.4031159568385945e-001 -3.1935496179129430e+000
      -1.0492099685198799e+000 1.1780357904406396e+000
      -2.3365833014125059e-001 -2.4927464122399634e+000
      3.2843363279777855e+000 -2.0023371540053483e+000
      3.6066570764879002e+000 1.0621108566477933e+000
      -8.2744038131785802e-001 -2.4496871400165099e+000
      -4.1520918677083579e-001 -1.5306234505644261e+000
      3.4629109934377200e+000 -1.0260534955624740e+000
      6.3196205917058113e-001 1.3238320500248983e+000
      3.6091261652109846e-001 -4.6130242786369324e+000
      -2.2889348877403513e+000 1.9634718108952975e+000
      -1.3109181098301879e+000 2.7314719293766569e+000
      8.2637917209138756e-001 -5.8846002682687382e-001
      -1.1414587515040391e+000 1.7014378502485861e+000
      1.1709365787337300e+000 -5.6884089571474272e-001
      1.9601573342090421e+000 -7.8311268547935897e-001
      -3.0029010652205415e+000 -1.5419626997949012e+000
      -1.9785234787790058e+000 -3.4445483898276978e+000
      -3.1634644889854520e+000 -2.0137176419045248e+000</_></weights></FruitRecog>
</opencv_storage>
